digraph Tree {
node [shape=box] ;
0 [label="Income <= 113.5\ngini = 0.174\nsamples = 5000\nvalue = [4520, 480]"] ;
1 [label="CCAvg <= 2.95\ngini = 0.041\nsamples = 4021\nvalue = [3937, 84]"] ;
0 -> 1 [labeldistance=2.5, labelangle=45, headlabel="True"] ;
2 [label="Income <= 106.5\ngini = 0.007\nsamples = 3723\nvalue = [3710, 13]"] ;
1 -> 2 ;
3 [label="gini = 0.0\nsamples = 3629\nvalue = [3629, 0]"] ;
2 -> 3 ;
4 [label="Family <= 3.5\ngini = 0.238\nsamples = 94\nvalue = [81, 13]"] ;
2 -> 4 ;
5 [label="Education <= 1.5\ngini = 0.157\nsamples = 70\nvalue = [64, 6]"] ;
4 -> 5 ;
6 [label="gini = 0.0\nsamples = 41\nvalue = [41, 0]"] ;
5 -> 6 ;
7 [label="CCAvg <= 1.65\ngini = 0.328\nsamples = 29\nvalue = [23, 6]"] ;
5 -> 7 ;
8 [label="Family <= 1.5\ngini = 0.43\nsamples = 16\nvalue = [11, 5]"] ;
7 -> 8 ;
9 [label="gini = 0.198\nsamples = 9\nvalue = [8, 1]"] ;
8 -> 9 ;
10 [label="gini = 0.49\nsamples = 7\nvalue = [3, 4]"] ;
8 -> 10 ;
11 [label="Education <= 2.5\ngini = 0.142\nsamples = 13\nvalue = [12, 1]"] ;
7 -> 11 ;
12 [label="gini = 0.0\nsamples = 11\nvalue = [11, 0]"] ;
11 -> 12 ;
13 [label="gini = 0.5\nsamples = 2\nvalue = [1, 1]"] ;
11 -> 13 ;
14 [label="CCAvg <= 1.15\ngini = 0.413\nsamples = 24\nvalue = [17, 7]"] ;
4 -> 14 ;
15 [label="gini = 0.0\nsamples = 3\nvalue = [0, 3]"] ;
14 -> 15 ;
16 [label="Education <= 2.5\ngini = 0.308\nsamples = 21\nvalue = [17, 4]"] ;
14 -> 16 ;
17 [label="Income <= 112.5\ngini = 0.5\nsamples = 6\nvalue = [3, 3]"] ;
16 -> 17 ;
18 [label="gini = 0.48\nsamples = 5\nvalue = [3, 2]"] ;
17 -> 18 ;
19 [label="gini = 0.0\nsamples = 1\nvalue = [0, 1]"] ;
17 -> 19 ;
20 [label="CCAvg <= 2.45\ngini = 0.124\nsamples = 15\nvalue = [14, 1]"] ;
16 -> 20 ;
21 [label="gini = 0.0\nsamples = 14\nvalue = [14, 0]"] ;
20 -> 21 ;
22 [label="gini = 0.0\nsamples = 1\nvalue = [0, 1]"] ;
20 -> 22 ;
23 [label="Income <= 82.5\ngini = 0.363\nsamples = 298\nvalue = [227, 71]"] ;
1 -> 23 ;
24 [label="CCAvg <= 3.55\ngini = 0.142\nsamples = 117\nvalue = [108, 9]"] ;
23 -> 24 ;
25 [label="CCAvg <= 3.45\ngini = 0.269\nsamples = 50\nvalue = [42, 8]"] ;
24 -> 25 ;
26 [label="Family <= 1.5\ngini = 0.245\nsamples = 49\nvalue = [42, 7]"] ;
25 -> 26 ;
27 [label="Income <= 72.0\ngini = 0.444\nsamples = 6\nvalue = [4, 2]"] ;
26 -> 27 ;
28 [label="gini = 0.0\nsamples = 2\nvalue = [0, 2]"] ;
27 -> 28 ;
29 [label="gini = 0.0\nsamples = 4\nvalue = [4, 0]"] ;
27 -> 29 ;
30 [label="Income <= 59.5\ngini = 0.206\nsamples = 43\nvalue = [38, 5]"] ;
26 -> 30 ;
31 [label="gini = 0.0\nsamples = 7\nvalue = [7, 0]"] ;
30 -> 31 ;
32 [label="gini = 0.239\nsamples = 36\nvalue = [31, 5]"] ;
30 -> 32 ;
33 [label="gini = 0.0\nsamples = 1\nvalue = [0, 1]"] ;
25 -> 33 ;
34 [label="Income <= 81.5\ngini = 0.029\nsamples = 67\nvalue = [66, 1]"] ;
24 -> 34 ;
35 [label="gini = 0.0\nsamples = 60\nvalue = [60, 0]"] ;
34 -> 35 ;
36 [label="Family <= 2.0\ngini = 0.245\nsamples = 7\nvalue = [6, 1]"] ;
34 -> 36 ;
37 [label="gini = 0.0\nsamples = 5\nvalue = [5, 0]"] ;
36 -> 37 ;
38 [label="Family <= 3.5\ngini = 0.5\nsamples = 2\nvalue = [1, 1]"] ;
36 -> 38 ;
39 [label="gini = 0.0\nsamples = 1\nvalue = [0, 1]"] ;
38 -> 39 ;
40 [label="gini = 0.0\nsamples = 1\nvalue = [1, 0]"] ;
38 -> 40 ;
41 [label="Education <= 1.5\ngini = 0.45\nsamples = 181\nvalue = [119, 62]"] ;
23 -> 41 ;
42 [label="CCAvg <= 4.25\ngini = 0.299\nsamples = 93\nvalue = [76, 17]"] ;
41 -> 42 ;
43 [label="Family <= 2.5\ngini = 0.44\nsamples = 46\nvalue = [31, 15]"] ;
42 -> 43 ;
44 [label="Income <= 83.5\ngini = 0.339\nsamples = 37\nvalue = [29, 8]"] ;
43 -> 44 ;
45 [label="gini = 0.0\nsamples = 3\nvalue = [0, 3]"] ;
44 -> 45 ;
46 [label="gini = 0.251\nsamples = 34\nvalue = [29, 5]"] ;
44 -> 46 ;
47 [label="Income <= 88.0\ngini = 0.346\nsamples = 9\nvalue = [2, 7]"] ;
43 -> 47 ;
48 [label="gini = 0.444\nsamples = 3\nvalue = [2, 1]"] ;
47 -> 48 ;
49 [label="gini = 0.0\nsamples = 6\nvalue = [0, 6]"] ;
47 -> 49 ;
50 [label="CCAvg <= 4.65\ngini = 0.081\nsamples = 47\nvalue = [45, 2]"] ;
42 -> 50 ;
51 [label="Income <= 100.0\ngini = 0.188\nsamples = 19\nvalue = [17, 2]"] ;
50 -> 51 ;
52 [label="gini = 0.408\nsamples = 7\nvalue = [5, 2]"] ;
51 -> 52 ;
53 [label="gini = 0.0\nsamples = 12\nvalue = [12, 0]"] ;
51 -> 53 ;
54 [label="gini = 0.0\nsamples = 28\nvalue = [28, 0]"] ;
50 -> 54 ;
55 [label="Income <= 92.5\ngini = 0.5\nsamples = 88\nvalue = [43, 45]"] ;
41 -> 55 ;
56 [label="Education <= 2.5\ngini = 0.388\nsamples = 38\nvalue = [28, 10]"] ;
55 -> 56 ;
57 [label="Income <= 87.0\ngini = 0.5\nsamples = 10\nvalue = [5, 5]"] ;
56 -> 57 ;
58 [label="gini = 0.408\nsamples = 7\nvalue = [5, 2]"] ;
57 -> 58 ;
59 [label="gini = 0.0\nsamples = 3\nvalue = [0, 3]"] ;
57 -> 59 ;
60 [label="CCAvg <= 3.65\ngini = 0.293\nsamples = 28\nvalue = [23, 5]"] ;
56 -> 60 ;
61 [label="gini = 0.5\nsamples = 10\nvalue = [5, 5]"] ;
60 -> 61 ;
62 [label="gini = 0.0\nsamples = 18\nvalue = [18, 0]"] ;
60 -> 62 ;
63 [label="Family <= 2.5\ngini = 0.42\nsamples = 50\nvalue = [15, 35]"] ;
55 -> 63 ;
64 [label="Education <= 2.5\ngini = 0.49\nsamples = 28\nvalue = [12, 16]"] ;
63 -> 64 ;
65 [label="gini = 0.0\nsamples = 8\nvalue = [0, 8]"] ;
64 -> 65 ;
66 [label="gini = 0.48\nsamples = 20\nvalue = [12, 8]"] ;
64 -> 66 ;
67 [label="CCAvg <= 3.45\ngini = 0.236\nsamples = 22\nvalue = [3, 19]"] ;
63 -> 67 ;
68 [label="gini = 0.5\nsamples = 6\nvalue = [3, 3]"] ;
67 -> 68 ;
69 [label="gini = 0.0\nsamples = 16\nvalue = [0, 16]"] ;
67 -> 69 ;
70 [label="Education <= 1.5\ngini = 0.482\nsamples = 979\nvalue = [583, 396]"] ;
0 -> 70 [labeldistance=2.5, labelangle=-45, headlabel="False"] ;
71 [label="Family <= 2.5\ngini = 0.194\nsamples = 635\nvalue = [566, 69]"] ;
70 -> 71 ;
72 [label="gini = 0.0\nsamples = 566\nvalue = [566, 0]"] ;
71 -> 72 ;
73 [label="gini = 0.0\nsamples = 69\nvalue = [0, 69]"] ;
71 -> 73 ;
74 [label="Income <= 116.5\ngini = 0.094\nsamples = 344\nvalue = [17, 327]"] ;
70 -> 74 ;
75 [label="CCAvg <= 2.15\ngini = 0.491\nsamples = 30\nvalue = [17, 13]"] ;
74 -> 75 ;
76 [label="CCAvg <= 0.55\ngini = 0.26\nsamples = 13\nvalue = [11, 2]"] ;
75 -> 76 ;
77 [label="gini = 0.0\nsamples = 1\nvalue = [0, 1]"] ;
76 -> 77 ;
78 [label="Income <= 114.5\ngini = 0.153\nsamples = 12\nvalue = [11, 1]"] ;
76 -> 78 ;
79 [label="gini = 0.0\nsamples = 7\nvalue = [7, 0]"] ;
78 -> 79 ;
80 [label="Education <= 2.5\ngini = 0.32\nsamples = 5\nvalue = [4, 1]"] ;
78 -> 80 ;
81 [label="gini = 0.0\nsamples = 2\nvalue = [2, 0]"] ;
80 -> 81 ;
82 [label="gini = 0.444\nsamples = 3\nvalue = [2, 1]"] ;
80 -> 82 ;
83 [label="CCAvg <= 4.0\ngini = 0.457\nsamples = 17\nvalue = [6, 11]"] ;
75 -> 83 ;
84 [label="CCAvg <= 3.35\ngini = 0.497\nsamples = 13\nvalue = [6, 7]"] ;
83 -> 84 ;
85 [label="CCAvg <= 2.8\ngini = 0.444\nsamples = 9\nvalue = [3, 6]"] ;
84 -> 85 ;
86 [label="gini = 0.5\nsamples = 6\nvalue = [3, 3]"] ;
85 -> 86 ;
87 [label="gini = 0.0\nsamples = 3\nvalue = [0, 3]"] ;
85 -> 87 ;
88 [label="Income <= 114.5\ngini = 0.375\nsamples = 4\nvalue = [3, 1]"] ;
84 -> 88 ;
89 [label="gini = 0.0\nsamples = 2\nvalue = [2, 0]"] ;
88 -> 89 ;
90 [label="gini = 0.5\nsamples = 2\nvalue = [1, 1]"] ;
88 -> 90 ;
91 [label="gini = 0.0\nsamples = 4\nvalue = [0, 4]"] ;
83 -> 91 ;
92 [label="gini = 0.0\nsamples = 314\nvalue = [0, 314]"] ;
74 -> 92 ;
}